svm_type c_svc
kernel_type rbf
gamma 0.5
nr_class 2
total_sv 180
rho -0.00126377
label 1 -1
nr_sv 89 91
SV
1 1:4.3329254 2:4.3427094 
1 1:0.97034378 2:1.0182961 
0.15826309006299 1:0.12450969 2:8.5859838 
1 1:3.1517686 2:2.3114135 
0.7351184114030751 1:5.794707 2:9.9757499 
1 1:8.2669752 2:8.7114156 
1 1:1.8463763 2:1.5770296 
1 1:1.4274526 2:1.127059 
1 1:5.7732923 2:6.482733 
1 1:1.3258873 2:1.535671 
1 1:8.0475508 2:8.0890766 
0.04712794458353783 1:4.9223452 2:9.9053717 
1 1:8.6826626 2:7.9399792 
1 1:6.5779609 2:6.6615156 
0.3882768957623855 1:1.9167985 2:9.7773609 
1 1:5.4973151 2:5.5806144 
1 1:4.2964726 2:4.4440503 
0.7305364316489399 1:0.10312899 2:9.968685 
1 1:3.8630206 2:4.0687054 
0.3121996574110322 1:2.4409942 2:6.4480212 
1 1:0.31555535 2:0.31983623 
0.2618621790332498 1:3.3787803 2:7.6214071 
1 1:3.0761858 2:3.3351822 
1 1:2.2937791 2:2.4695011 
1 1:5.8725542 2:5.9736881 
1 1:9.3967848 2:9.7514837 
0.6246297458973157 1:2.6149538 2:3.1217695 
1 1:8.2965719 2:8.6765482 
1 1:1.3664137 2:1.7040432 
0.4781180824584925 1:4.7060167 2:5.2533786 
0.3770578869800005 1:0.47847531 2:1.4343044 
1 1:4.3232278 2:4.0208822 
0.114499901547238 1:1.5716839 2:7.6730501 
1 1:4.4971924 2:4.612724 
1 1:0.23297797 2:1.3926337 
1 1:9.4248367 2:9.4882041 
1 1:1.5268376 2:1.6698051 
1 1:0.61122645 2:1.431908 
0.3245762543792207 1:3.7161807 2:9.9947721 
0.2855980473556801 1:2.1830734 2:2.5080623 
1 1:6.6079745 2:6.8587723 
1 1:7.9654143 2:8.1010615 
1 1:3.5677413 2:3.6560986 
1 1:5.2310941 2:4.389731 
0.1667544822520258 1:1.9135626 2:6.0495108 
1 1:2.8241271 2:2.1514544 
0.3421549629858493 1:3.4796093 2:9.9836535 
1 1:4.2376159 2:4.4012486 
0.1132760720350857 1:3.2503335 2:7.2765994 
0.6120348762005542 1:0.038392007 2:3.9748325 
1 1:9.2381201 2:9.6627984 
1 1:7.1543852 2:7.4368702 
0.007882864615110226 1:2.9519283 2:7.0249665 
0.2390499491051418 1:5.4439363 2:6.2191102 
0.280854206651536 1:0.029996174 2:6.6988797 
0.1947926254054559 1:8.7828853 2:9.2514407 
1 1:8.905807 2:9.3688929 
1 1:0.46362903 2:0.62285017 
1 1:7.7182373 2:8.0811035 
1 1:2.9012465 2:3.1413839 
0.4131511391780001 1:0.082775139 2:7.886275 
1 1:4.7960967 2:4.0497319 
1 1:1.8948544 2:2.0702516 
1 1:5.7638402 2:4.9776573 
1 1:2.9296048 2:2.9905009 
1 1:3.7253804 2:2.9518147 
1 1:8.93999 2:9.060317 
0.2912400714485502 1:2.0787985 2:8.2810432 
1 1:5.2038543 2:5.8409363 
0.3478485014074099 1:1.4931829 2:5.1870681 
1 1:6.6667667 2:6.695026 
1 1:4.9617709 2:4.2040544 
0.4513696612310355 1:0.014865305 2:5.5401134 
0.07003846120513518 1:1.6768344 2:7.2959277 
1 1:1.8978444 2:1.1011923 
0.516945613861305 1:3.4886555 2:4.1135912 
0.1621314452281219 1:1.4227923 2:9.949687 
0.1172889160207371 1:0.022123598 2:7.015187 
0.1214396217579847 1:6.6779636 2:7.0728102 
1 1:1.2627085 2:1.4469937 
1 1:9.2933456 2:9.6042495 
1 1:5.3112962 2:5.4842805 
1 1:6.0327676 2:5.3167511 
1 1:2.3492197 2:1.4973129 
0.4856680702393363 1:4.4513472 2:8.4163761 
1 1:9.3371769 2:9.4709301 
1 1:7.2230744 2:7.5904552 
0.0130365303018984 1:6.3027233 2:6.8040652 
0.03298636790054071 1:2.375801 2:8.2855702 
-0.2107776776574452 1:8.3695485 2:2.3194594 
-1 1:7.0396252 2:6.8795842 
-1 1:8.8092225 2:8.4033047 
-1 1:2.6895108 2:1.7808657 
-1 1:2.9301875 2:2.8558741 
-1 1:1.2454371 2:1.2420518 
-1 1:1.3042119 2:1.4173106 
-1 1:4.5435377 2:4.3920014 
-1 1:8.0968104 2:7.7031399 
-1 1:4.6004486 2:4.1064187 
-1 1:5.6202369 2:5.6130974 
-0.03685689596135413 1:5.7254859 2:1.389379 
-1 1:1.3389665 2:1.286632 
-0.09957738031141569 1:6.4434002 2:1.839334 
-1 1:3.0494966 2:2.4886892 
-1 1:5.7823108 2:5.2524289 
-1 1:9.4702425 2:9.0983017 
-1 1:9.6850639 2:9.3868276 
-1 1:4.1796267 2:4.1162546 
-0.1433966891095306 1:5.3307508 2:1.1418895 
-0.337129081184002 1:7.4929571 2:6.6333857 
-1 1:2.6365607 2:1.8599877 
-1 1:4.3265782 2:4.1833418 
-1 1:9.6750936 2:9.3112049 
-0.1377266746981333 1:8.2424798 2:1.9841561 
-1 1:3.9749481 2:3.5242245 
-1 1:6.9647313 2:6.7180726 
-0.9426570075006474 1:5.5669019 2:4.556896 
-0.6324872353090529 1:4.0127208 2:0.042956897 
-0.6878357191871971 1:0.12845232 2:0.061808115 
-1 1:9.7466778 2:9.7400797 
-0.07287822093663766 1:5.1551325 2:1.3942903 
-0.005108702311915438 1:8.0928517 2:7.5368429 
-0.2081634924773373 1:5.9572314 2:1.9699755 
-1 1:8.9983374 2:8.7742359 
-0.4097659476960041 1:9.9446941 2:6.5319171 
-1 1:6.4698211 2:5.8261943 
-1 1:5.9559962 2:6.8378508 
-1 1:2.9631903 2:3.6304459 
-0.0480129238086818 1:9.9961341 2:3.4952287 
-0.3852765295088073 1:8.4202403 2:0.038256795 
-0.2205248903771319 1:8.4224933 2:4.278843 
-1 1:8.1023296 2:7.7202992 
-1 1:5.913398 2:5.5488705 
-1 1:5.7670778 2:5.262043 
-0.5230665723268205 1:5.9655893 2:0.027964446 
-1 1:4.7972103 2:4.3222808 
-0.5956122611445738 1:9.7803212 2:4.9807895 
-0.1217625137234753 1:7.9577485 2:4.1465592 
-1 1:5.7452012 2:5.5736269 
-0.1256476842825535 1:7.6534597 2:1.5539316 
-1 1:2.3370229 2:2.1985297 
-1 1:8.7434011 2:8.4622671 
-0.008946650780374455 1:6.4913551 2:3.0097783 
-1 1:0.73451051 2:0.70727124 
-1 1:8.1521781 2:7.7430057 
-1 1:1.518417 2:1.0798264 
-1 1:1.2262173 2:1.0242871 
-0.07423072160954633 1:7.667689 2:1.7048166 
-0.2098643413526743 1:6.6398658 2:2.7615238 
-0.2698191327774577 1:9.5236289 2:9.0668037 
-1 1:7.6268035 2:6.9041704 
-0.4065091229294123 1:7.2199297 2:0.049559886 
-0.521042336448573 1:9.6537817 2:0.1851807 
-1 1:3.9165747 2:3.3202048 
-0.8922165997160775 1:2.1783339 2:1.2984492 
-1 1:8.0417949 2:8.0312917 
-0.01278173664123049 1:4.9037854 2:0.28761443 
-0.07646591985918554 1:3.2547355 2:0.015139412 
-1 1:0.17959916 2:0.15505736 
-1 1:9.6175714 2:9.2589667 
-1 1:0.40938974 2:0.81108889 
-0.01024003867651549 1:8.6144348 2:2.2280207 
-1 1:1.1093236 2:0.8671612 
-1 1:3.2511215 2:2.9506189 
-1 1:4.4879327 2:4.4676166 
-1 1:6.0176057 2:5.7495255 
-1 1:3.9538527 2:3.2889635 
-1 1:2.7361356 2:2.1646055 
-0.55771791208314 1:1.9190236 2:1.1522022 
-0.5117533126597015 1:9.9914571 2:1.3555393 
-1 1:1.8250987 2:1.5034505 
-0.5307467411352564 1:8.6318181 2:8.2022165 
-0.2028049794709853 1:7.8338416 2:3.7519278 
-1 1:1.4495879 2:1.3844631 
-1 1:4.8501195 2:3.8547972 
-0.196318637226621 1:7.0466452 2:3.0916998 
-0.6019689210555941 1:9.9625103 2:3.2172924 
-1 1:9.0612461 2:9.0008947 
-1 1:4.9614322 2:4.5772711 
-0.7901177636189097 1:3.42416 2:2.5570735 
